digraph Tree {
node [shape=box] ;
0 [label="sttl <= 0.239\ngini = 0.461\nsamples = 180371\nvalue = [65002, 115369]"] ;
1 [label="ct_dst_sport_ltm <= 0.033\ngini = 0.012\nsamples = 42354\nvalue = [42102, 252]"] ;
0 -> 1 [labeldistance=2.5, labelangle=45, headlabel="True"] ;
2 [label="spkts <= 0.0\ngini = 0.006\nsamples = 42154\nvalue = [42031, 123]"] ;
1 -> 2 ;
3 [label="gini = 0.092\nsamples = 2534\nvalue = [2411, 123]"] ;
2 -> 3 ;
4 [label="gini = 0.0\nsamples = 39620\nvalue = [39620, 0]"] ;
2 -> 4 ;
5 [label="sbytes <= 0.0\ngini = 0.458\nsamples = 200\nvalue = [71, 129]"] ;
1 -> 5 ;
6 [label="gini = 0.11\nsamples = 137\nvalue = [8, 129]"] ;
5 -> 6 ;
7 [label="gini = 0.0\nsamples = 63\nvalue = [63, 0]"] ;
5 -> 7 ;
8 [label="synack <= 0.012\ngini = 0.277\nsamples = 138017\nvalue = [22900, 115117]"] ;
0 -> 8 [labeldistance=2.5, labelangle=-45, headlabel="False"] ;
9 [label="smean <= 0.015\ngini = 0.139\nsamples = 93505\nvalue = [7013, 86492]"] ;
8 -> 9 ;
10 [label="gini = 0.386\nsamples = 3437\nvalue = [2538, 899]"] ;
9 -> 10 ;
11 [label="gini = 0.094\nsamples = 90068\nvalue = [4475, 85593]"] ;
9 -> 11 ;
12 [label="ct_srv_dst <= 0.008\ngini = 0.459\nsamples = 44512\nvalue = [15887, 28625]"] ;
8 -> 12 ;
13 [label="gini = 0.184\nsamples = 18239\nvalue = [1866, 16373]"] ;
12 -> 13 ;
14 [label="gini = 0.498\nsamples = 26273\nvalue = [14021, 12252]"] ;
12 -> 14 ;
}