digraph Tree {
node [shape=box] ;
0 [label="sttl <= 61.0\ngini = 0.461\nsamples = 180371\nvalue = [65159, 115212]"] ;
1 [label="sinpkt <= 0.001\ngini = 0.012\nsamples = 42533\nvalue = [42278, 255]"] ;
0 -> 1 [labeldistance=2.5, labelangle=45, headlabel="True"] ;
2 [label="dur <= 0.0\ngini = 0.498\nsamples = 483\nvalue = [228, 255]"] ;
1 -> 2 ;
3 [label="gini = 0.0\nsamples = 225\nvalue = [225, 0]"] ;
2 -> 3 ;
4 [label="gini = 0.023\nsamples = 258\nvalue = [3, 255]"] ;
2 -> 4 ;
5 [label="gini = 0.0\nsamples = 42050\nvalue = [42050, 0]"] ;
1 -> 5 ;
6 [label="synack <= 0.038\ngini = 0.277\nsamples = 137838\nvalue = [22881, 114957]"] ;
0 -> 6 [labeldistance=2.5, labelangle=-45, headlabel="False"] ;
7 [label="smean <= 45.5\ngini = 0.139\nsamples = 93195\nvalue = [7012, 86183]"] ;
6 -> 7 ;
8 [label="gini = 0.382\nsamples = 3429\nvalue = [2548, 881]"] ;
7 -> 8 ;
9 [label="gini = 0.095\nsamples = 89766\nvalue = [4464, 85302]"] ;
7 -> 9 ;
10 [label="ct_srv_dst <= 1.5\ngini = 0.458\nsamples = 44643\nvalue = [15869, 28774]"] ;
6 -> 10 ;
11 [label="gini = 0.186\nsamples = 18297\nvalue = [1894, 16403]"] ;
10 -> 11 ;
12 [label="gini = 0.498\nsamples = 26346\nvalue = [13975, 12371]"] ;
10 -> 12 ;
}