digraph Tree {
node [shape=box] ;
0 [label="sttl <= 0.239\ngini = 0.461\nsamples = 180371\nvalue = [65088, 115283]"] ;
1 [label="ct_dst_sport_ltm <= 0.033\ngini = 0.012\nsamples = 42447\nvalue = [42185, 262]"] ;
0 -> 1 [labeldistance=2.5, labelangle=45, headlabel="True"] ;
2 [label="spkts <= 0.0\ngini = 0.006\nsamples = 42252\nvalue = [42119, 133]"] ;
1 -> 2 ;
3 [label="gini = 0.096\nsamples = 2633\nvalue = [2500, 133]"] ;
2 -> 3 ;
4 [label="gini = 0.0\nsamples = 39619\nvalue = [39619, 0]"] ;
2 -> 4 ;
5 [label="sttl <= 0.002\ngini = 0.448\nsamples = 195\nvalue = [66, 129]"] ;
1 -> 5 ;
6 [label="gini = 0.11\nsamples = 137\nvalue = [8, 129]"] ;
5 -> 6 ;
7 [label="gini = 0.0\nsamples = 58\nvalue = [58, 0]"] ;
5 -> 7 ;
8 [label="synack <= 0.012\ngini = 0.277\nsamples = 137924\nvalue = [22903, 115021]"] ;
0 -> 8 [labeldistance=2.5, labelangle=-45, headlabel="False"] ;
9 [label="smean <= 0.015\ngini = 0.14\nsamples = 93170\nvalue = [7046, 86124]"] ;
8 -> 9 ;
10 [label="gini = 0.385\nsamples = 3442\nvalue = [2547, 895]"] ;
9 -> 10 ;
11 [label="gini = 0.095\nsamples = 89728\nvalue = [4499, 85229]"] ;
9 -> 11 ;
12 [label="ct_srv_dst <= 0.008\ngini = 0.458\nsamples = 44754\nvalue = [15857, 28897]"] ;
8 -> 12 ;
13 [label="gini = 0.183\nsamples = 18403\nvalue = [1878, 16525]"] ;
12 -> 13 ;
14 [label="gini = 0.498\nsamples = 26351\nvalue = [13979, 12372]"] ;
12 -> 14 ;
}