digraph Tree {
node [shape=box] ;
0 [label="sttl <= 61.0\ngini = 0.462\nsamples = 180371\nvalue = [65177, 115194]"] ;
1 [label="sinpkt <= 0.001\ngini = 0.012\nsamples = 42478\nvalue = [42228, 250]"] ;
0 -> 1 [labeldistance=2.5, labelangle=45, headlabel="True"] ;
2 [label="smean <= 58.0\ngini = 0.499\nsamples = 477\nvalue = [227, 250]"] ;
1 -> 2 ;
3 [label="gini = 0.0\nsamples = 224\nvalue = [224, 0]"] ;
2 -> 3 ;
4 [label="gini = 0.023\nsamples = 253\nvalue = [3, 250]"] ;
2 -> 4 ;
5 [label="gini = 0.0\nsamples = 42001\nvalue = [42001, 0]"] ;
1 -> 5 ;
6 [label="synack <= 0.039\ngini = 0.277\nsamples = 137893\nvalue = [22949, 114944]"] ;
0 -> 6 [labeldistance=2.5, labelangle=-45, headlabel="False"] ;
7 [label="smean <= 45.5\ngini = 0.14\nsamples = 93681\nvalue = [7102, 86579]"] ;
6 -> 7 ;
8 [label="gini = 0.385\nsamples = 3408\nvalue = [2522, 886]"] ;
7 -> 8 ;
9 [label="gini = 0.096\nsamples = 90273\nvalue = [4580, 85693]"] ;
7 -> 9 ;
10 [label="ct_srv_dst <= 1.5\ngini = 0.46\nsamples = 44212\nvalue = [15847, 28365]"] ;
6 -> 10 ;
11 [label="gini = 0.188\nsamples = 18064\nvalue = [1896, 16168]"] ;
10 -> 11 ;
12 [label="gini = 0.498\nsamples = 26148\nvalue = [13951, 12197]"] ;
10 -> 12 ;
}