digraph Tree {
node [shape=box] ;
0 [label="4 <= -1.075\ngini = 0.461\nsamples = 180371\nvalue = [65028, 115343]"] ;
1 [label="3 <= 0.325\ngini = 0.069\nsamples = 38639\nvalue = [37257, 1382]"] ;
0 -> 1 [labeldistance=2.5, labelangle=45, headlabel="True"] ;
2 [label="2 <= -0.673\ngini = 0.027\nsamples = 37758\nvalue = [37240, 518]"] ;
1 -> 2 ;
3 [label="gini = 0.305\nsamples = 539\nvalue = [101, 438]"] ;
2 -> 3 ;
4 [label="gini = 0.004\nsamples = 37219\nvalue = [37139, 80]"] ;
2 -> 4 ;
5 [label="6 <= 0.346\ngini = 0.038\nsamples = 881\nvalue = [17, 864]"] ;
1 -> 5 ;
6 [label="gini = 0.016\nsamples = 866\nvalue = [7, 859]"] ;
5 -> 6 ;
7 [label="gini = 0.444\nsamples = 15\nvalue = [10, 5]"] ;
5 -> 7 ;
8 [label="4 <= 1.383\ngini = 0.315\nsamples = 141732\nvalue = [27771, 113961]"] ;
0 -> 8 [labeldistance=2.5, labelangle=-45, headlabel="False"] ;
9 [label="8 <= -0.723\ngini = 0.258\nsamples = 129177\nvalue = [19620, 109557]"] ;
8 -> 9 ;
10 [label="gini = 0.496\nsamples = 21925\nvalue = [10035, 11890]"] ;
9 -> 10 ;
11 [label="gini = 0.163\nsamples = 107252\nvalue = [9585, 97667]"] ;
9 -> 11 ;
12 [label="6 <= -1.046\ngini = 0.455\nsamples = 12555\nvalue = [8151, 4404]"] ;
8 -> 12 ;
13 [label="gini = 0.068\nsamples = 3716\nvalue = [3585, 131]"] ;
12 -> 13 ;
14 [label="gini = 0.499\nsamples = 8839\nvalue = [4566, 4273]"] ;
12 -> 14 ;
}