digraph Tree {
node [shape=box] ;
0 [label="sttl <= 0.239\ngini = 0.462\nsamples = 180371\nvalue = [65269, 115102]"] ;
1 [label="ct_dst_sport_ltm <= 0.033\ngini = 0.013\nsamples = 42530\nvalue = [42260, 270]"] ;
0 -> 1 [labeldistance=2.5, labelangle=45, headlabel="True"] ;
2 [label="spkts <= 0.0\ngini = 0.006\nsamples = 42327\nvalue = [42190, 137]"] ;
1 -> 2 ;
3 [label="gini = 0.099\nsamples = 2610\nvalue = [2473, 137]"] ;
2 -> 3 ;
4 [label="gini = 0.0\nsamples = 39717\nvalue = [39717, 0]"] ;
2 -> 4 ;
5 [label="spkts <= 0.0\ngini = 0.452\nsamples = 203\nvalue = [70, 133]"] ;
1 -> 5 ;
6 [label="gini = 0.141\nsamples = 144\nvalue = [11, 133]"] ;
5 -> 6 ;
7 [label="gini = 0.0\nsamples = 59\nvalue = [59, 0]"] ;
5 -> 7 ;
8 [label="synack <= 0.012\ngini = 0.278\nsamples = 137841\nvalue = [23009, 114832]"] ;
0 -> 8 [labeldistance=2.5, labelangle=-45, headlabel="False"] ;
9 [label="smean <= 0.015\ngini = 0.141\nsamples = 93644\nvalue = [7159, 86485]"] ;
8 -> 9 ;
10 [label="gini = 0.378\nsamples = 3457\nvalue = [2581, 876]"] ;
9 -> 10 ;
11 [label="gini = 0.096\nsamples = 90187\nvalue = [4578, 85609]"] ;
9 -> 11 ;
12 [label="ct_srv_dst <= 0.008\ngini = 0.46\nsamples = 44197\nvalue = [15850, 28347]"] ;
8 -> 12 ;
13 [label="gini = 0.187\nsamples = 17988\nvalue = [1879, 16109]"] ;
12 -> 13 ;
14 [label="gini = 0.498\nsamples = 26209\nvalue = [13971, 12238]"] ;
12 -> 14 ;
}